<?xml version="1.0" encoding="UTF-8" standalone="yes"?>
<PMML xmlns="http://www.dmg.org/PMML-4_2" version="4.2">
    <Header>
        <Application name="JPMML-Converter" version="1.0-SNAPSHOT"/>
        <Timestamp>2015-03-17T06:30:44Z</Timestamp>
    </Header>
    <DataDictionary>
        <DataField name="Price" optype="continuous" dataType="double"/>
        <DataField name="Mileage" optype="continuous" dataType="double"/>
        <DataField name="Cylinder" optype="continuous" dataType="double"/>
        <DataField name="Doors" optype="continuous" dataType="double"/>
        <DataField name="Cruise" optype="continuous" dataType="double"/>
        <DataField name="Sound" optype="continuous" dataType="double"/>
        <DataField name="Leather" optype="continuous" dataType="double"/>
        <DataField name="Buick" optype="continuous" dataType="double"/>
        <DataField name="Cadillac" optype="continuous" dataType="double"/>
        <DataField name="Chevy" optype="continuous" dataType="double"/>
        <DataField name="Pontiac" optype="continuous" dataType="double"/>
        <DataField name="Saab" optype="continuous" dataType="double"/>
        <DataField name="Saturn" optype="continuous" dataType="double"/>
        <DataField name="convertible" optype="continuous" dataType="double"/>
        <DataField name="coupe" optype="continuous" dataType="double"/>
        <DataField name="hatchback" optype="continuous" dataType="double"/>
        <DataField name="sedan" optype="continuous" dataType="double"/>
        <DataField name="wagon" optype="continuous" dataType="double"/>
    </DataDictionary>
    <MiningModel functionName="regression">
        <MiningSchema>
            <MiningField name="Price" usageType="target"/>
            <MiningField name="Mileage" usageType="active"/>
            <MiningField name="Cylinder" usageType="active"/>
            <MiningField name="Doors" usageType="active"/>
            <MiningField name="Cruise" usageType="active"/>
            <MiningField name="Sound" usageType="active"/>
            <MiningField name="Leather" usageType="active"/>
            <MiningField name="Buick" usageType="active"/>
            <MiningField name="Cadillac" usageType="active"/>
            <MiningField name="Chevy" usageType="active"/>
            <MiningField name="Pontiac" usageType="active"/>
            <MiningField name="Saab" usageType="active"/>
            <MiningField name="Saturn" usageType="active"/>
            <MiningField name="convertible" usageType="active"/>
            <MiningField name="coupe" usageType="active"/>
            <MiningField name="hatchback" usageType="active"/>
            <MiningField name="sedan" usageType="active"/>
            <MiningField name="wagon" usageType="active"/>
        </MiningSchema>
        <Targets>
            <Target field="Price" rescaleConstant="18678.41"/>
        </Targets>
        <Segmentation multipleModelMethod="sum">
            <Segment id="1">
                <True/>
                <TreeModel functionName="regression" splitCharacteristic="multiSplit">
                    <MiningSchema>
                        <MiningField name="Cruise" usageType="active"/>
                    </MiningSchema>
                    <Node id="1">
                        <True/>
                        <Node id="4" score="1.2187716822429906">
                            <SimplePredicate field="Cruise" operator="isMissing"/>
                        </Node>
                        <Node id="2" score="-5.44749">
                            <SimplePredicate field="Cruise" operator="lessThan" value="0.5"/>
                        </Node>
                        <Node id="3" score="3.4686350000000004">
                            <SimplePredicate field="Cruise" operator="greaterOrEqual" value="0.5"/>
                        </Node>
                    </Node>
                </TreeModel>
            </Segment>
            <Segment id="2">
                <True/>
                <TreeModel functionName="regression" splitCharacteristic="multiSplit">
                    <MiningSchema>
                        <MiningField name="Cruise" usageType="active"/>
                    </MiningSchema>
                    <Node id="1">
                        <True/>
                        <Node id="4" score="1.2047429829906533">
                            <SimplePredicate field="Cruise" operator="isMissing"/>
                        </Node>
                        <Node id="2" score="-5.5052625100000006">
                            <SimplePredicate field="Cruise" operator="lessThan" value="0.5"/>
                        </Node>
                        <Node id="3" score="3.2504763649999986">
                            <SimplePredicate field="Cruise" operator="greaterOrEqual" value="0.5"/>
                        </Node>
                    </Node>
                </TreeModel>
            </Segment>
            <Segment id="3">
                <True/>
                <TreeModel functionName="regression" splitCharacteristic="multiSplit">
                    <MiningSchema>
                        <MiningField name="Cruise" usageType="active"/>
                    </MiningSchema>
                    <Node id="1">
                        <True/>
                        <Node id="4" score="2.222014402425498">
                            <SimplePredicate field="Cruise" operator="isMissing"/>
                        </Node>
                        <Node id="2" score="-5.0225172474900015">
                            <SimplePredicate field="Cruise" operator="lessThan" value="0.5"/>
                        </Node>
                        <Node id="3" score="4.392440888634999">
                            <SimplePredicate field="Cruise" operator="greaterOrEqual" value="0.5"/>
                        </Node>
                    </Node>
                </TreeModel>
            </Segment>
            <Segment id="4">
                <True/>
                <TreeModel functionName="regression" splitCharacteristic="multiSplit">
                    <MiningSchema>
                        <MiningField name="Cruise" usageType="active"/>
                    </MiningSchema>
                    <Node id="1">
                        <True/>
                        <Node id="4" score="1.0004230154314837">
                            <SimplePredicate field="Cruise" operator="isMissing"/>
                        </Node>
                        <Node id="2" score="-5.3536047302425125">
                            <SimplePredicate field="Cruise" operator="lessThan" value="0.5"/>
                        </Node>
                        <Node id="3" score="3.216323447746365">
                            <SimplePredicate field="Cruise" operator="greaterOrEqual" value="0.5"/>
                        </Node>
                    </Node>
                </TreeModel>
            </Segment>
            <Segment id="5">
                <True/>
                <TreeModel functionName="regression" splitCharacteristic="multiSplit">
                    <MiningSchema>
                        <MiningField name="Cruise" usageType="active"/>
                    </MiningSchema>
                    <Node id="1">
                        <True/>
                        <Node id="4" score="1.3913780005110297">
                            <SimplePredicate field="Cruise" operator="isMissing"/>
                        </Node>
                        <Node id="2" score="-4.695971125512267">
                            <SimplePredicate field="Cruise" operator="lessThan" value="0.5"/>
                        </Node>
                        <Node id="3" score="3.2472771242986203">
                            <SimplePredicate field="Cruise" operator="greaterOrEqual" value="0.5"/>
                        </Node>
                    </Node>
                </TreeModel>
            </Segment>
            <Segment id="6">
                <True/>
                <TreeModel functionName="regression" splitCharacteristic="multiSplit">
                    <MiningSchema>
                        <MiningField name="Cruise" usageType="active"/>
                    </MiningSchema>
                    <Node id="1">
                        <True/>
                        <Node id="4" score="1.0458031645374144">
                            <SimplePredicate field="Cruise" operator="isMissing"/>
                        </Node>
                        <Node id="2" score="-4.907535154386757">
                            <SimplePredicate field="Cruise" operator="lessThan" value="0.5"/>
                        </Node>
                        <Node id="3" score="3.0550548471743224">
                            <SimplePredicate field="Cruise" operator="greaterOrEqual" value="0.5"/>
                        </Node>
                    </Node>
                </TreeModel>
            </Segment>
            <Segment id="7">
                <True/>
                <TreeModel functionName="regression" splitCharacteristic="multiSplit">
                    <MiningSchema>
                        <MiningField name="Cruise" usageType="active"/>
                    </MiningSchema>
                    <Node id="1">
                        <True/>
                        <Node id="4" score="0.7318369875411023">
                            <SimplePredicate field="Cruise" operator="isMissing"/>
                        </Node>
                        <Node id="2" score="-5.201267619232371">
                            <SimplePredicate field="Cruise" operator="lessThan" value="0.5"/>
                        </Node>
                        <Node id="3" score="2.73425979232715">
                            <SimplePredicate field="Cruise" operator="greaterOrEqual" value="0.5"/>
                        </Node>
                    </Node>
                </TreeModel>
            </Segment>
            <Segment id="8">
                <True/>
                <TreeModel functionName="regression" splitCharacteristic="multiSplit">
                    <MiningSchema>
                        <MiningField name="Cruise" usageType="active"/>
                    </MiningSchema>
                    <Node id="1">
                        <True/>
                        <Node id="4" score="1.465435329795282">
                            <SimplePredicate field="Cruise" operator="isMissing"/>
                        </Node>
                        <Node id="2" score="-5.097246351613138">
                            <SimplePredicate field="Cruise" operator="lessThan" value="0.5"/>
                        </Node>
                        <Node id="3" score="3.5364455325348247">
                            <SimplePredicate field="Cruise" operator="greaterOrEqual" value="0.5"/>
                        </Node>
                    </Node>
                </TreeModel>
            </Segment>
            <Segment id="9">
                <True/>
                <TreeModel functionName="regression" splitCharacteristic="multiSplit">
                    <MiningSchema>
                        <MiningField name="Cruise" usageType="active"/>
                    </MiningSchema>
                    <Node id="1">
                        <True/>
                        <Node id="4" score="0.9312489257386336">
                            <SimplePredicate field="Cruise" operator="isMissing"/>
                        </Node>
                        <Node id="2" score="-5.249204105261526">
                            <SimplePredicate field="Cruise" operator="lessThan" value="0.5"/>
                        </Node>
                        <Node id="3" score="3.0517390870022862">
                            <SimplePredicate field="Cruise" operator="greaterOrEqual" value="0.5"/>
                        </Node>
                    </Node>
                </TreeModel>
            </Segment>
            <Segment id="10">
                <True/>
                <TreeModel functionName="regression" splitCharacteristic="multiSplit">
                    <MiningSchema>
                        <MiningField name="Cruise" usageType="active"/>
                    </MiningSchema>
                    <Node id="1">
                        <True/>
                        <Node id="4" score="0.9781428676084021">
                            <SimplePredicate field="Cruise" operator="isMissing"/>
                        </Node>
                        <Node id="2" score="-5.415019901156265">
                            <SimplePredicate field="Cruise" operator="lessThan" value="0.5"/>
                        </Node>
                        <Node id="3" score="2.995657347915285">
                            <SimplePredicate field="Cruise" operator="greaterOrEqual" value="0.5"/>
                        </Node>
                    </Node>
                </TreeModel>
            </Segment>
            <Segment id="11">
                <True/>
                <TreeModel functionName="regression" splitCharacteristic="multiSplit">
                    <MiningSchema>
                        <MiningField name="Cruise" usageType="active"/>
                    </MiningSchema>
                    <Node id="1">
                        <True/>
                        <Node id="4" score="1.2377739014330853">
                            <SimplePredicate field="Cruise" operator="isMissing"/>
                        </Node>
                        <Node id="2" score="-4.635474881255108">
                            <SimplePredicate field="Cruise" operator="lessThan" value="0.5"/>
                        </Node>
                        <Node id="3" score="2.7870166905673726">
                            <SimplePredicate field="Cruise" operator="greaterOrEqual" value="0.5"/>
                        </Node>
                    </Node>
                </TreeModel>
            </Segment>
            <Segment id="12">
                <True/>
                <TreeModel functionName="regression" splitCharacteristic="multiSplit">
                    <MiningSchema>
                        <MiningField name="Cruise" usageType="active"/>
                    </MiningSchema>
                    <Node id="1">
                        <True/>
                        <Node id="4" score="1.1438279351157195">
                            <SimplePredicate field="Cruise" operator="isMissing"/>
                        </Node>
                        <Node id="2" score="-5.313049406373853">
                            <SimplePredicate field="Cruise" operator="lessThan" value="0.5"/>
                        </Node>
                        <Node id="3" score="3.6208196738768055">
                            <SimplePredicate field="Cruise" operator="greaterOrEqual" value="0.5"/>
                        </Node>
                    </Node>
                </TreeModel>
            </Segment>
            <Segment id="13">
                <True/>
                <TreeModel functionName="regression" splitCharacteristic="multiSplit">
                    <MiningSchema>
                        <MiningField name="Cruise" usageType="active"/>
                    </MiningSchema>
                    <Node id="1">
                        <True/>
                        <Node id="4" score="0.7545676372976">
                            <SimplePredicate field="Cruise" operator="isMissing"/>
                        </Node>
                        <Node id="2" score="-4.5385963569674805">
                            <SimplePredicate field="Cruise" operator="lessThan" value="0.5"/>
                        </Node>
                        <Node id="3" score="2.340373854202928">
                            <SimplePredicate field="Cruise" operator="greaterOrEqual" value="0.5"/>
                        </Node>
                    </Node>
                </TreeModel>
            </Segment>
            <Segment id="14">
                <True/>
                <TreeModel functionName="regression" splitCharacteristic="multiSplit">
                    <MiningSchema>
                        <MiningField name="Cruise" usageType="active"/>
                    </MiningSchema>
                    <Node id="1">
                        <True/>
                        <Node id="4" score="0.5423624782106198">
                            <SimplePredicate field="Cruise" operator="isMissing"/>
                        </Node>
                        <Node id="2" score="-5.097992760610512">
                            <SimplePredicate field="Cruise" operator="lessThan" value="0.5"/>
                        </Node>
                        <Node id="3" score="2.739903480348723">
                            <SimplePredicate field="Cruise" operator="greaterOrEqual" value="0.5"/>
                        </Node>
                    </Node>
                </TreeModel>
            </Segment>
            <Segment id="15">
                <True/>
                <TreeModel functionName="regression" splitCharacteristic="multiSplit">
                    <MiningSchema>
                        <MiningField name="Cruise" usageType="active"/>
                    </MiningSchema>
                    <Node id="1">
                        <True/>
                        <Node id="4" score="1.2297717569350748">
                            <SimplePredicate field="Cruise" operator="isMissing"/>
                        </Node>
                        <Node id="2" score="-4.483859767849902">
                            <SimplePredicate field="Cruise" operator="lessThan" value="0.5"/>
                        </Node>
                        <Node id="3" score="3.002163576868374">
                            <SimplePredicate field="Cruise" operator="greaterOrEqual" value="0.5"/>
                        </Node>
                    </Node>
                </TreeModel>
            </Segment>
            <Segment id="16">
                <True/>
                <TreeModel functionName="regression" splitCharacteristic="multiSplit">
                    <MiningSchema>
                        <MiningField name="Cruise" usageType="active"/>
                    </MiningSchema>
                    <Node id="1">
                        <True/>
                        <Node id="4" score="1.26340344323384">
                            <SimplePredicate field="Cruise" operator="isMissing"/>
                        </Node>
                        <Node id="2" score="-5.057415908082052">
                            <SimplePredicate field="Cruise" operator="lessThan" value="0.5"/>
                        </Node>
                        <Node id="3" score="3.326811413291507">
                            <SimplePredicate field="Cruise" operator="greaterOrEqual" value="0.5"/>
                        </Node>
                    </Node>
                </TreeModel>
            </Segment>
            <Segment id="17">
                <True/>
                <TreeModel functionName="regression" splitCharacteristic="multiSplit">
                    <MiningSchema>
                        <MiningField name="Cruise" usageType="active"/>
                    </MiningSchema>
                    <Node id="1">
                        <True/>
                        <Node id="4" score="0.9106271403580725">
                            <SimplePredicate field="Cruise" operator="isMissing"/>
                        </Node>
                        <Node id="2" score="-5.433478492173969">
                            <SimplePredicate field="Cruise" operator="lessThan" value="0.5"/>
                        </Node>
                        <Node id="3" score="2.8785946018782163">
                            <SimplePredicate field="Cruise" operator="greaterOrEqual" value="0.5"/>
                        </Node>
                    </Node>
                </TreeModel>
            </Segment>
            <Segment id="18">
                <True/>
                <TreeModel functionName="regression" splitCharacteristic="multiSplit">
                    <MiningSchema>
                        <MiningField name="Cruise" usageType="active"/>
                    </MiningSchema>
                    <Node id="1">
                        <True/>
                        <Node id="4" score="0.9239233044949717">
                            <SimplePredicate field="Cruise" operator="isMissing"/>
                        </Node>
                        <Node id="2" score="-5.368040013681796">
                            <SimplePredicate field="Cruise" operator="lessThan" value="0.5"/>
                        </Node>
                        <Node id="3" score="2.8757160072763366">
                            <SimplePredicate field="Cruise" operator="greaterOrEqual" value="0.5"/>
                        </Node>
                    </Node>
                </TreeModel>
            </Segment>
            <Segment id="19">
                <True/>
                <TreeModel functionName="regression" splitCharacteristic="multiSplit">
                    <MiningSchema>
                        <MiningField name="Cruise" usageType="active"/>
                    </MiningSchema>
                    <Node id="1">
                        <True/>
                        <Node id="4" score="0.64021085974364">
                            <SimplePredicate field="Cruise" operator="isMissing"/>
                        </Node>
                        <Node id="2" score="-5.041556973668116">
                            <SimplePredicate field="Cruise" operator="lessThan" value="0.5"/>
                        </Node>
                        <Node id="3" score="2.6866102912690604">
                            <SimplePredicate field="Cruise" operator="greaterOrEqual" value="0.5"/>
                        </Node>
                    </Node>
                </TreeModel>
            </Segment>
            <Segment id="20">
                <True/>
                <TreeModel functionName="regression" splitCharacteristic="multiSplit">
                    <MiningSchema>
                        <MiningField name="Cruise" usageType="active"/>
                    </MiningSchema>
                    <Node id="1">
                        <True/>
                        <Node id="4" score="1.1497094058207267">
                            <SimplePredicate field="Cruise" operator="isMissing"/>
                        </Node>
                        <Node id="2" score="-5.458635416694448">
                            <SimplePredicate field="Cruise" operator="lessThan" value="0.5"/>
                        </Node>
                        <Node id="3" score="3.164448680977792">
                            <SimplePredicate field="Cruise" operator="greaterOrEqual" value="0.5"/>
                        </Node>
                    </Node>
                </TreeModel>
            </Segment>
            <Segment id="21">
                <True/>
                <TreeModel functionName="regression" splitCharacteristic="multiSplit">
                    <MiningSchema>
                        <MiningField name="Cruise" usageType="active"/>
                    </MiningSchema>
                    <Node id="1">
                        <True/>
                        <Node id="4" score="1.4456645126565724">
                            <SimplePredicate field="Cruise" operator="isMissing"/>
                        </Node>
                        <Node id="2" score="-5.380596781277754">
                            <SimplePredicate field="Cruise" operator="lessThan" value="0.5"/>
                        </Node>
                        <Node id="3" score="3.4907792322968163">
                            <SimplePredicate field="Cruise" operator="greaterOrEqual" value="0.5"/>
                        </Node>
                    </Node>
                </TreeModel>
            </Segment>
            <Segment id="22">
                <True/>
                <TreeModel functionName="regression" splitCharacteristic="multiSplit">
                    <MiningSchema>
                        <MiningField name="Cruise" usageType="active"/>
                    </MiningSchema>
                    <Node id="1">
                        <True/>
                        <Node id="4" score="1.0293512947558754">
                            <SimplePredicate field="Cruise" operator="isMissing"/>
                        </Node>
                        <Node id="2" score="-4.851466184496478">
                            <SimplePredicate field="Cruise" operator="lessThan" value="0.5"/>
                        </Node>
                        <Node id="3" score="2.8222834530645198">
                            <SimplePredicate field="Cruise" operator="greaterOrEqual" value="0.5"/>
                        </Node>
                    </Node>
                </TreeModel>
            </Segment>
            <Segment id="23">
                <True/>
                <TreeModel functionName="regression" splitCharacteristic="multiSplit">
                    <MiningSchema>
                        <MiningField name="Cruise" usageType="active"/>
                    </MiningSchema>
                    <Node id="1">
                        <True/>
                        <Node id="4" score="1.0811310774445737">
                            <SimplePredicate field="Cruise" operator="isMissing"/>
                        </Node>
                        <Node id="2" score="-4.787849718311981">
                            <SimplePredicate field="Cruise" operator="lessThan" value="0.5"/>
                        </Node>
                        <Node id="3" score="3.161276169611454">
                            <SimplePredicate field="Cruise" operator="greaterOrEqual" value="0.5"/>
                        </Node>
                    </Node>
                </TreeModel>
            </Segment>
            <Segment id="24">
                <True/>
                <TreeModel functionName="regression" splitCharacteristic="multiSplit">
                    <MiningSchema>
                        <MiningField name="Cruise" usageType="active"/>
                    </MiningSchema>
                    <Node id="1">
                        <True/>
                        <Node id="4" score="1.266869281041685">
                            <SimplePredicate field="Cruise" operator="isMissing"/>
                        </Node>
                        <Node id="2" score="-4.749906868593669">
                            <SimplePredicate field="Cruise" operator="lessThan" value="0.5"/>
                        </Node>
                        <Node id="3" score="2.9143198934418417">
                            <SimplePredicate field="Cruise" operator="greaterOrEqual" value="0.5"/>
                        </Node>
                    </Node>
                </TreeModel>
            </Segment>
            <Segment id="25">
                <True/>
                <TreeModel functionName="regression" splitCharacteristic="multiSplit">
                    <MiningSchema>
                        <MiningField name="Cruise" usageType="active"/>
                    </MiningSchema>
                    <Node id="1">
                        <True/>
                        <Node id="4" score="1.354429615261055">
                            <SimplePredicate field="Cruise" operator="isMissing"/>
                        </Node>
                        <Node id="2" score="-4.545201961725074">
                            <SimplePredicate field="Cruise" operator="lessThan" value="0.5"/>
                        </Node>
                        <Node id="3" score="3.1219305735483975">
                            <SimplePredicate field="Cruise" operator="greaterOrEqual" value="0.5"/>
                        </Node>
                    </Node>
                </TreeModel>
            </Segment>
            <Segment id="26">
                <True/>
                <TreeModel functionName="regression" splitCharacteristic="multiSplit">
                    <MiningSchema>
                        <MiningField name="Cruise" usageType="active"/>
                    </MiningSchema>
                    <Node id="1">
                        <True/>
                        <Node id="4" score="1.5042718236690884">
                            <SimplePredicate field="Cruise" operator="isMissing"/>
                        </Node>
                        <Node id="2" score="-4.73361675976335">
                            <SimplePredicate field="Cruise" operator="lessThan" value="0.5"/>
                        </Node>
                        <Node id="3" score="3.3079986429748534">
                            <SimplePredicate field="Cruise" operator="greaterOrEqual" value="0.5"/>
                        </Node>
                    </Node>
                </TreeModel>
            </Segment>
            <Segment id="27">
                <True/>
                <TreeModel functionName="regression" splitCharacteristic="multiSplit">
                    <MiningSchema>
                        <MiningField name="Cruise" usageType="active"/>
                    </MiningSchema>
                    <Node id="1">
                        <True/>
                        <Node id="4" score="1.2544548528983575">
                            <SimplePredicate field="Cruise" operator="isMissing"/>
                        </Node>
                        <Node id="2" score="-5.372968143003585">
                            <SimplePredicate field="Cruise" operator="lessThan" value="0.5"/>
                        </Node>
                        <Node id="3" score="3.2750106443318763">
                            <SimplePredicate field="Cruise" operator="greaterOrEqual" value="0.5"/>
                        </Node>
                    </Node>
                </TreeModel>
            </Segment>
            <Segment id="28">
                <True/>
                <TreeModel functionName="regression" splitCharacteristic="multiSplit">
                    <MiningSchema>
                        <MiningField name="Cruise" usageType="active"/>
                    </MiningSchema>
                    <Node id="1">
                        <True/>
                        <Node id="4" score="0.6967289313521629">
                            <SimplePredicate field="Cruise" operator="isMissing"/>
                        </Node>
                        <Node id="2" score="-5.01363017486058">
                            <SimplePredicate field="Cruise" operator="lessThan" value="0.5"/>
                        </Node>
                        <Node id="3" score="2.4681056336875447">
                            <SimplePredicate field="Cruise" operator="greaterOrEqual" value="0.5"/>
                        </Node>
                    </Node>
                </TreeModel>
            </Segment>
            <Segment id="29">
                <True/>
                <TreeModel functionName="regression" splitCharacteristic="multiSplit">
                    <MiningSchema>
                        <MiningField name="Cruise" usageType="active"/>
                    </MiningSchema>
                    <Node id="1">
                        <True/>
                        <Node id="4" score="1.5884674556636706">
                            <SimplePredicate field="Cruise" operator="isMissing"/>
                        </Node>
                        <Node id="2" score="-4.758646544685719">
                            <SimplePredicate field="Cruise" operator="lessThan" value="0.5"/>
                        </Node>
                        <Node id="3" score="3.4237775280538556">
                            <SimplePredicate field="Cruise" operator="greaterOrEqual" value="0.5"/>
                        </Node>
                    </Node>
                </TreeModel>
            </Segment>
            <Segment id="30">
                <True/>
                <TreeModel functionName="regression" splitCharacteristic="multiSplit">
                    <MiningSchema>
                        <MiningField name="Cruise" usageType="active"/>
                    </MiningSchema>
                    <Node id="1">
                        <True/>
                        <Node id="4" score="1.206704627510182">
                            <SimplePredicate field="Cruise" operator="isMissing"/>
                        </Node>
                        <Node id="2" score="-5.154372898141032">
                            <SimplePredicate field="Cruise" operator="lessThan" value="0.5"/>
                        </Node>
                        <Node id="3" score="3.4612637505258026">
                            <SimplePredicate field="Cruise" operator="greaterOrEqual" value="0.5"/>
                        </Node>
                    </Node>
                </TreeModel>
            </Segment>
            <Segment id="31">
                <True/>
                <TreeModel functionName="regression" splitCharacteristic="multiSplit">
                    <MiningSchema>
                        <MiningField name="Cruise" usageType="active"/>
                    </MiningSchema>
                    <Node id="1">
                        <True/>
                        <Node id="4" score="0.8661638201912527">
                            <SimplePredicate field="Cruise" operator="isMissing"/>
                        </Node>
                        <Node id="2" score="-5.080528525242891">
                            <SimplePredicate field="Cruise" operator="lessThan" value="0.5"/>
                        </Node>
                        <Node id="3" score="2.8731724867752764">
                            <SimplePredicate field="Cruise" operator="greaterOrEqual" value="0.5"/>
                        </Node>
                    </Node>
                </TreeModel>
            </Segment>
            <Segment id="32">
                <True/>
                <TreeModel functionName="regression" splitCharacteristic="multiSplit">
                    <MiningSchema>
                        <MiningField name="Cruise" usageType="active"/>
                    </MiningSchema>
                    <Node id="1">
                        <True/>
                        <Node id="4" score="0.9528352120657262">
                            <SimplePredicate field="Cruise" operator="isMissing"/>
                        </Node>
                        <Node id="2" score="-4.802417996717648">
                            <SimplePredicate field="Cruise" operator="lessThan" value="0.5"/>
                        </Node>
                        <Node id="3" score="2.9599193142885">
                            <SimplePredicate field="Cruise" operator="greaterOrEqual" value="0.5"/>
                        </Node>
                    </Node>
                </TreeModel>
            </Segment>
            <Segment id="33">
                <True/>
                <TreeModel functionName="regression" splitCharacteristic="multiSplit">
                    <MiningSchema>
                        <MiningField name="Cruise" usageType="active"/>
                    </MiningSchema>
                    <Node id="1">
                        <True/>
                        <Node id="4" score="0.9289034202215278">
                            <SimplePredicate field="Cruise" operator="isMissing"/>
                        </Node>
                        <Node id="2" score="-5.24698057872093">
                            <SimplePredicate field="Cruise" operator="lessThan" value="0.5"/>
                        </Node>
                        <Node id="3" score="2.978989394974211">
                            <SimplePredicate field="Cruise" operator="greaterOrEqual" value="0.5"/>
                        </Node>
                    </Node>
                </TreeModel>
            </Segment>
            <Segment id="34">
                <True/>
                <TreeModel functionName="regression" splitCharacteristic="multiSplit">
                    <MiningSchema>
                        <MiningField name="Cruise" usageType="active"/>
                    </MiningSchema>
                    <Node id="1">
                        <True/>
                        <Node id="4" score="1.3548897786110756">
                            <SimplePredicate field="Cruise" operator="isMissing"/>
                        </Node>
                        <Node id="2" score="-5.294698598142208">
                            <SimplePredicate field="Cruise" operator="lessThan" value="0.5"/>
                        </Node>
                        <Node id="3" score="3.1756104055792367">
                            <SimplePredicate field="Cruise" operator="greaterOrEqual" value="0.5"/>
                        </Node>
                    </Node>
                </TreeModel>
            </Segment>
            <Segment id="35">
                <True/>
                <TreeModel functionName="regression" splitCharacteristic="multiSplit">
                    <MiningSchema>
                        <MiningField name="Cruise" usageType="active"/>
                    </MiningSchema>
                    <Node id="1">
                        <True/>
                        <Node id="4" score="1.2194365413005603">
                            <SimplePredicate field="Cruise" operator="isMissing"/>
                        </Node>
                        <Node id="2" score="-4.961283899544063">
                            <SimplePredicate field="Cruise" operator="lessThan" value="0.5"/>
                        </Node>
                        <Node id="3" score="3.1699097951736586">
                            <SimplePredicate field="Cruise" operator="greaterOrEqual" value="0.5"/>
                        </Node>
                    </Node>
                </TreeModel>
            </Segment>
            <Segment id="36">
                <True/>
                <TreeModel functionName="regression" splitCharacteristic="multiSplit">
                    <MiningSchema>
                        <MiningField name="Cruise" usageType="active"/>
                    </MiningSchema>
                    <Node id="1">
                        <True/>
                        <Node id="4" score="1.1005338103635478">
                            <SimplePredicate field="Cruise" operator="isMissing"/>
                        </Node>
                        <Node id="2" score="-4.491927615644519">
                            <SimplePredicate field="Cruise" operator="lessThan" value="0.5"/>
                        </Node>
                        <Node id="3" score="2.8956448853784824">
                            <SimplePredicate field="Cruise" operator="greaterOrEqual" value="0.5"/>
                        </Node>
                    </Node>
                </TreeModel>
            </Segment>
            <Segment id="37">
                <True/>
                <TreeModel functionName="regression" splitCharacteristic="multiSplit">
                    <MiningSchema>
                        <MiningField name="Cruise" usageType="active"/>
                    </MiningSchema>
                    <Node id="1">
                        <True/>
                        <Node id="4" score="1.2038804087281862">
                            <SimplePredicate field="Cruise" operator="isMissing"/>
                        </Node>
                        <Node id="2" score="-4.8519206880288746">
                            <SimplePredicate field="Cruise" operator="lessThan" value="0.5"/>
                        </Node>
                        <Node id="3" score="2.8927492404931034">
                            <SimplePredicate field="Cruise" operator="greaterOrEqual" value="0.5"/>
                        </Node>
                    </Node>
                </TreeModel>
            </Segment>
            <Segment id="38">
                <True/>
                <TreeModel functionName="regression" splitCharacteristic="multiSplit">
                    <MiningSchema>
                        <MiningField name="Cruise" usageType="active"/>
                    </MiningSchema>
                    <Node id="1">
                        <True/>
                        <Node id="4" score="1.53957774005038">
                            <SimplePredicate field="Cruise" operator="isMissing"/>
                        </Node>
                        <Node id="2" score="-4.360513767340845">
                            <SimplePredicate field="Cruise" operator="lessThan" value="0.5"/>
                        </Node>
                        <Node id="3" score="3.3072164912526096">
                            <SimplePredicate field="Cruise" operator="greaterOrEqual" value="0.5"/>
                        </Node>
                    </Node>
                </TreeModel>
            </Segment>
            <Segment id="39">
                <True/>
                <TreeModel functionName="regression" splitCharacteristic="multiSplit">
                    <MiningSchema>
                        <MiningField name="Cruise" usageType="active"/>
                    </MiningSchema>
                    <Node id="1">
                        <True/>
                        <Node id="4" score="-0.3202493307842136">
                            <SimplePredicate field="Cruise" operator="isMissing"/>
                        </Node>
                        <Node id="2" score="-5.110128253573506">
                            <SimplePredicate field="Cruise" operator="lessThan" value="0.5"/>
                        </Node>
                        <Node id="3" score="1.3774292747613581">
                            <SimplePredicate field="Cruise" operator="greaterOrEqual" value="0.5"/>
                        </Node>
                    </Node>
                </TreeModel>
            </Segment>
            <Segment id="40">
                <True/>
                <TreeModel functionName="regression" splitCharacteristic="multiSplit">
                    <MiningSchema>
                        <MiningField name="Cruise" usageType="active"/>
                    </MiningSchema>
                    <Node id="1">
                        <True/>
                        <Node id="4" score="1.0651889559297478">
                            <SimplePredicate field="Cruise" operator="isMissing"/>
                        </Node>
                        <Node id="2" score="-4.48956312531993">
                            <SimplePredicate field="Cruise" operator="lessThan" value="0.5"/>
                        </Node>
                        <Node id="3" score="3.033961845486596">
                            <SimplePredicate field="Cruise" operator="greaterOrEqual" value="0.5"/>
                        </Node>
                    </Node>
                </TreeModel>
            </Segment>
            <Segment id="41">
                <True/>
                <TreeModel functionName="regression" splitCharacteristic="multiSplit">
                    <MiningSchema>
                        <MiningField name="Cruise" usageType="active"/>
                    </MiningSchema>
                    <Node id="1">
                        <True/>
                        <Node id="4" score="0.6142073786171431">
                            <SimplePredicate field="Cruise" operator="isMissing"/>
                        </Node>
                        <Node id="2" score="-5.031838562194611">
                            <SimplePredicate field="Cruise" operator="lessThan" value="0.5"/>
                        </Node>
                        <Node id="3" score="2.5197478836411102">
                            <SimplePredicate field="Cruise" operator="greaterOrEqual" value="0.5"/>
                        </Node>
                    </Node>
                </TreeModel>
            </Segment>
            <Segment id="42">
                <True/>
                <TreeModel functionName="regression" splitCharacteristic="multiSplit">
                    <MiningSchema>
                        <MiningField name="Cruise" usageType="active"/>
                    </MiningSchema>
                    <Node id="1">
                        <True/>
                        <Node id="4" score="1.3655214062954992">
                            <SimplePredicate field="Cruise" operator="isMissing"/>
                        </Node>
                        <Node id="2" score="-4.480041723632415">
                            <SimplePredicate field="Cruise" operator="lessThan" value="0.5"/>
                        </Node>
                        <Node id="3" score="2.9957581357574674">
                            <SimplePredicate field="Cruise" operator="greaterOrEqual" value="0.5"/>
                        </Node>
                    </Node>
                </TreeModel>
            </Segment>
            <Segment id="43">
                <True/>
                <TreeModel functionName="regression" splitCharacteristic="multiSplit">
                    <MiningSchema>
                        <MiningField name="Cruise" usageType="active"/>
                    </MiningSchema>
                    <Node id="1">
                        <True/>
                        <Node id="4" score="0.6273289777907896">
                            <SimplePredicate field="Cruise" operator="isMissing"/>
                        </Node>
                        <Node id="2" score="-5.345626681908783">
                            <SimplePredicate field="Cruise" operator="lessThan" value="0.5"/>
                        </Node>
                        <Node id="3" score="2.385497377621712">
                            <SimplePredicate field="Cruise" operator="greaterOrEqual" value="0.5"/>
                        </Node>
                    </Node>
                </TreeModel>
            </Segment>
            <Segment id="44">
                <True/>
                <TreeModel functionName="regression" splitCharacteristic="multiSplit">
                    <MiningSchema>
                        <MiningField name="Cruise" usageType="active"/>
                    </MiningSchema>
                    <Node id="1">
                        <True/>
                        <Node id="4" score="1.3320639872718485">
                            <SimplePredicate field="Cruise" operator="isMissing"/>
                        </Node>
                        <Node id="2" score="-4.268371055226875">
                            <SimplePredicate field="Cruise" operator="lessThan" value="0.5"/>
                        </Node>
                        <Node id="3" score="3.2851568802440925">
                            <SimplePredicate field="Cruise" operator="greaterOrEqual" value="0.5"/>
                        </Node>
                    </Node>
                </TreeModel>
            </Segment>
            <Segment id="45">
                <True/>
                <TreeModel functionName="regression" splitCharacteristic="multiSplit">
                    <MiningSchema>
                        <MiningField name="Cruise" usageType="active"/>
                    </MiningSchema>
                    <Node id="1">
                        <True/>
                        <Node id="4" score="1.013205033823175">
                            <SimplePredicate field="Cruise" operator="isMissing"/>
                        </Node>
                        <Node id="2" score="-4.229547684171648">
                            <SimplePredicate field="Cruise" operator="lessThan" value="0.5"/>
                        </Node>
                        <Node id="3" score="2.529181723363847">
                            <SimplePredicate field="Cruise" operator="greaterOrEqual" value="0.5"/>
                        </Node>
                    </Node>
                </TreeModel>
            </Segment>
            <Segment id="46">
                <True/>
                <TreeModel functionName="regression" splitCharacteristic="multiSplit">
                    <MiningSchema>
                        <MiningField name="Cruise" usageType="active"/>
                    </MiningSchema>
                    <Node id="1">
                        <True/>
                        <Node id="4" score="0.7319480651210182">
                            <SimplePredicate field="Cruise" operator="isMissing"/>
                        </Node>
                        <Node id="2" score="-5.191823136487477">
                            <SimplePredicate field="Cruise" operator="lessThan" value="0.5"/>
                        </Node>
                        <Node id="3" score="2.8315125416404845">
                            <SimplePredicate field="Cruise" operator="greaterOrEqual" value="0.5"/>
                        </Node>
                    </Node>
                </TreeModel>
            </Segment>
            <Segment id="47">
                <True/>
                <TreeModel functionName="regression" splitCharacteristic="multiSplit">
                    <MiningSchema>
                        <MiningField name="Cruise" usageType="active"/>
                    </MiningSchema>
                    <Node id="1">
                        <True/>
                        <Node id="4" score="1.160082875217265">
                            <SimplePredicate field="Cruise" operator="isMissing"/>
                        </Node>
                        <Node id="2" score="-4.556371313350989">
                            <SimplePredicate field="Cruise" operator="lessThan" value="0.5"/>
                        </Node>
                        <Node id="3" score="3.057661029098843">
                            <SimplePredicate field="Cruise" operator="greaterOrEqual" value="0.5"/>
                        </Node>
                    </Node>
                </TreeModel>
            </Segment>
            <Segment id="48">
                <True/>
                <TreeModel functionName="regression" splitCharacteristic="multiSplit">
                    <MiningSchema>
                        <MiningField name="Cruise" usageType="active"/>
                    </MiningSchema>
                    <Node id="1">
                        <True/>
                        <Node id="4" score="1.0939978232776308">
                            <SimplePredicate field="Cruise" operator="isMissing"/>
                        </Node>
                        <Node id="2" score="-4.725704942037637">
                            <SimplePredicate field="Cruise" operator="lessThan" value="0.5"/>
                        </Node>
                        <Node id="3" score="2.930543368069744">
                            <SimplePredicate field="Cruise" operator="greaterOrEqual" value="0.5"/>
                        </Node>
                    </Node>
                </TreeModel>
            </Segment>
            <Segment id="49">
                <True/>
                <TreeModel functionName="regression" splitCharacteristic="multiSplit">
                    <MiningSchema>
                        <MiningField name="Cruise" usageType="active"/>
                    </MiningSchema>
                    <Node id="1">
                        <True/>
                        <Node id="4" score="0.6457247699921571">
                            <SimplePredicate field="Cruise" operator="isMissing"/>
                        </Node>
                        <Node id="2" score="-4.464144237095599">
                            <SimplePredicate field="Cruise" operator="lessThan" value="0.5"/>
                        </Node>
                        <Node id="3" score="2.6365828247016725">
                            <SimplePredicate field="Cruise" operator="greaterOrEqual" value="0.5"/>
                        </Node>
                    </Node>
                </TreeModel>
            </Segment>
            <Segment id="50">
                <True/>
                <TreeModel functionName="regression" splitCharacteristic="multiSplit">
                    <MiningSchema>
                        <MiningField name="Cruise" usageType="active"/>
                    </MiningSchema>
                    <Node id="1">
                        <True/>
                        <Node id="4" score="1.2853678698031734">
                            <SimplePredicate field="Cruise" operator="isMissing"/>
                        </Node>
                        <Node id="2" score="-4.411815092858504">
                            <SimplePredicate field="Cruise" operator="lessThan" value="0.5"/>
                        </Node>
                        <Node id="3" score="2.9623612418769736">
                            <SimplePredicate field="Cruise" operator="greaterOrEqual" value="0.5"/>
                        </Node>
                    </Node>
                </TreeModel>
            </Segment>
            <Segment id="51">
                <True/>
                <TreeModel functionName="regression" splitCharacteristic="multiSplit">
                    <MiningSchema>
                        <MiningField name="Cruise" usageType="active"/>
                    </MiningSchema>
                    <Node id="1">
                        <True/>
                        <Node id="4" score="2.2608127157452182">
                            <SimplePredicate field="Cruise" operator="isMissing"/>
                        </Node>
                        <Node id="2" score="-4.886313277765645">
                            <SimplePredicate field="Cruise" operator="lessThan" value="0.5"/>
                        </Node>
                        <Node id="3" score="4.217763880635097">
                            <SimplePredicate field="Cruise" operator="greaterOrEqual" value="0.5"/>
                        </Node>
                    </Node>
                </TreeModel>
            </Segment>
            <Segment id="52">
                <True/>
                <TreeModel functionName="regression" splitCharacteristic="multiSplit">
                    <MiningSchema>
                        <MiningField name="Cruise" usageType="active"/>
                    </MiningSchema>
                    <Node id="1">
                        <True/>
                        <Node id="4" score="0.4674260510436353">
                            <SimplePredicate field="Cruise" operator="isMissing"/>
                        </Node>
                        <Node id="2" score="-5.117626964487879">
                            <SimplePredicate field="Cruise" operator="lessThan" value="0.5"/>
                        </Node>
                        <Node id="3" score="2.170186116754463">
                            <SimplePredicate field="Cruise" operator="greaterOrEqual" value="0.5"/>
                        </Node>
                    </Node>
                </TreeModel>
            </Segment>
            <Segment id="53">
                <True/>
                <TreeModel functionName="regression" splitCharacteristic="multiSplit">
                    <MiningSchema>
                        <MiningField name="Cruise" usageType="active"/>
                    </MiningSchema>
                    <Node id="1">
                        <True/>
                        <Node id="4" score="0.5626012351318803">
                            <SimplePredicate field="Cruise" operator="isMissing"/>
                        </Node>
                        <Node id="2" score="-5.379469337523389">
                            <SimplePredicate field="Cruise" operator="lessThan" value="0.5"/>
                        </Node>
                        <Node id="3" score="2.63483593063771">
                            <SimplePredicate field="Cruise" operator="greaterOrEqual" value="0.5"/>
                        </Node>
                    </Node>
                </TreeModel>
            </Segment>
            <Segment id="54">
                <True/>
                <TreeModel functionName="regression" splitCharacteristic="multiSplit">
                    <MiningSchema>
                        <MiningField name="Cruise" usageType="active"/>
                    </MiningSchema>
                    <Node id="1">
                        <True/>
                        <Node id="4" score="1.0992462039902047">
                            <SimplePredicate field="Cruise" operator="isMissing"/>
                        </Node>
                        <Node id="2" score="-4.4249198681858655">
                            <SimplePredicate field="Cruise" operator="lessThan" value="0.5"/>
                        </Node>
                        <Node id="3" score="3.0257410947070693">
                            <SimplePredicate field="Cruise" operator="greaterOrEqual" value="0.5"/>
                        </Node>
                    </Node>
                </TreeModel>
            </Segment>
            <Segment id="55">
                <True/>
                <TreeModel functionName="regression" splitCharacteristic="multiSplit">
                    <MiningSchema>
                        <MiningField name="Cruise" usageType="active"/>
                    </MiningSchema>
                    <Node id="1">
                        <True/>
                        <Node id="4" score="1.5714093291498277">
                            <SimplePredicate field="Cruise" operator="isMissing"/>
                        </Node>
                        <Node id="2" score="-4.60037494831768">
                            <SimplePredicate field="Cruise" operator="lessThan" value="0.5"/>
                        </Node>
                        <Node id="3" score="3.5861653536123614">
                            <SimplePredicate field="Cruise" operator="greaterOrEqual" value="0.5"/>
                        </Node>
                    </Node>
                </TreeModel>
            </Segment>
            <Segment id="56">
                <True/>
                <TreeModel functionName="regression" splitCharacteristic="multiSplit">
                    <MiningSchema>
                        <MiningField name="Cruise" usageType="active"/>
                    </MiningSchema>
                    <Node id="1">
                        <True/>
                        <Node id="4" score="0.7157245161765389">
                            <SimplePredicate field="Cruise" operator="isMissing"/>
                        </Node>
                        <Node id="2" score="-5.176014573369363">
                            <SimplePredicate field="Cruise" operator="lessThan" value="0.5"/>
                        </Node>
                        <Node id="3" score="2.837749188258749">
                            <SimplePredicate field="Cruise" operator="greaterOrEqual" value="0.5"/>
                        </Node>
                    </Node>
                </TreeModel>
            </Segment>
            <Segment id="57">
                <True/>
                <TreeModel functionName="regression" splitCharacteristic="multiSplit">
                    <MiningSchema>
                        <MiningField name="Cruise" usageType="active"/>
                    </MiningSchema>
                    <Node id="1">
                        <True/>
                        <Node id="4" score="2.397106019001581">
                            <SimplePredicate field="Cruise" operator="isMissing"/>
                        </Node>
                        <Node id="2" score="-4.623753558795995">
                            <SimplePredicate field="Cruise" operator="lessThan" value="0.5"/>
                        </Node>
                        <Node id="3" score="4.500521439070489">
                            <SimplePredicate field="Cruise" operator="greaterOrEqual" value="0.5"/>
                        </Node>
                    </Node>
                </TreeModel>
            </Segment>
            <Segment id="58">
                <True/>
                <TreeModel functionName="regression" splitCharacteristic="multiSplit">
                    <MiningSchema>
                        <MiningField name="Cruise" usageType="active"/>
                    </MiningSchema>
                    <Node id="1">
                        <True/>
                        <Node id="4" score="1.8555393755812781">
                            <SimplePredicate field="Cruise" operator="isMissing"/>
                        </Node>
                        <Node id="2" score="-4.677894805237198">
                            <SimplePredicate field="Cruise" operator="lessThan" value="0.5"/>
                        </Node>
                        <Node id="3" score="4.134005917631419">
                            <SimplePredicate field="Cruise" operator="greaterOrEqual" value="0.5"/>
                        </Node>
                    </Node>
                </TreeModel>
            </Segment>
            <Segment id="59">
                <True/>
                <TreeModel functionName="regression" splitCharacteristic="multiSplit">
                    <MiningSchema>
                        <MiningField name="Cruise" usageType="active"/>
                    </MiningSchema>
                    <Node id="1">
                        <True/>
                        <Node id="4" score="1.3716131792297745">
                            <SimplePredicate field="Cruise" operator="isMissing"/>
                        </Node>
                        <Node id="2" score="-4.349926910431959">
                            <SimplePredicate field="Cruise" operator="lessThan" value="0.5"/>
                        </Node>
                        <Node id="3" score="3.208156911713788">
                            <SimplePredicate field="Cruise" operator="greaterOrEqual" value="0.5"/>
                        </Node>
                    </Node>
                </TreeModel>
            </Segment>
            <Segment id="60">
                <True/>
                <TreeModel functionName="regression" splitCharacteristic="multiSplit">
                    <MiningSchema>
                        <MiningField name="Cruise" usageType="active"/>
                    </MiningSchema>
                    <Node id="1">
                        <True/>
                        <Node id="4" score="1.3470276091400601">
                            <SimplePredicate field="Cruise" operator="isMissing"/>
                        </Node>
                        <Node id="2" score="-4.562956983521528">
                            <SimplePredicate field="Cruise" operator="lessThan" value="0.5"/>
                        </Node>
                        <Node id="3" score="3.4756237548020725">
                            <SimplePredicate field="Cruise" operator="greaterOrEqual" value="0.5"/>
                        </Node>
                    </Node>
                </TreeModel>
            </Segment>
            <Segment id="61">
                <True/>
                <TreeModel functionName="regression" splitCharacteristic="multiSplit">
                    <MiningSchema>
                        <MiningField name="Cruise" usageType="active"/>
                    </MiningSchema>
                    <Node id="1">
                        <True/>
                        <Node id="4" score="0.9914324421560973">
                            <SimplePredicate field="Cruise" operator="isMissing"/>
                        </Node>
                        <Node id="2" score="-5.223424026538005">
                            <SimplePredicate field="Cruise" operator="lessThan" value="0.5"/>
                        </Node>
                        <Node id="3" score="2.9526781310472687">
                            <SimplePredicate field="Cruise" operator="greaterOrEqual" value="0.5"/>
                        </Node>
                    </Node>
                </TreeModel>
            </Segment>
            <Segment id="62">
                <True/>
                <TreeModel functionName="regression" splitCharacteristic="multiSplit">
                    <MiningSchema>
                        <MiningField name="Cruise" usageType="active"/>
                    </MiningSchema>
                    <Node id="1">
                        <True/>
                        <Node id="4" score="0.9119993553356602">
                            <SimplePredicate field="Cruise" operator="isMissing"/>
                        </Node>
                        <Node id="2" score="-5.154405602511467">
                            <SimplePredicate field="Cruise" operator="lessThan" value="0.5"/>
                        </Node>
                        <Node id="3" score="2.8592404529162194">
                            <SimplePredicate field="Cruise" operator="greaterOrEqual" value="0.5"/>
                        </Node>
                    </Node>
                </TreeModel>
            </Segment>
            <Segment id="63">
                <True/>
                <TreeModel functionName="regression" splitCharacteristic="multiSplit">
                    <MiningSchema>
                        <MiningField name="Cruise" usageType="active"/>
                    </MiningSchema>
                    <Node id="1">
                        <True/>
                        <Node id="4" score="0.8613283598062352">
                            <SimplePredicate field="Cruise" operator="isMissing"/>
                        </Node>
                        <Node id="2" score="-4.828136196908954">
                            <SimplePredicate field="Cruise" operator="lessThan" value="0.5"/>
                        </Node>
                        <Node id="3" score="2.595921212463305">
                            <SimplePredicate field="Cruise" operator="greaterOrEqual" value="0.5"/>
                        </Node>
                    </Node>
                </TreeModel>
            </Segment>
            <Segment id="64">
                <True/>
                <TreeModel functionName="regression" splitCharacteristic="multiSplit">
                    <MiningSchema>
                        <MiningField name="Cruise" usageType="active"/>
                    </MiningSchema>
                    <Node id="1">
                        <True/>
                        <Node id="4" score="1.2212657956086546">
                            <SimplePredicate field="Cruise" operator="isMissing"/>
                        </Node>
                        <Node id="2" score="-4.307218060712045">
                            <SimplePredicate field="Cruise" operator="lessThan" value="0.5"/>
                        </Node>
                        <Node id="3" score="2.9659102912508426">
                            <SimplePredicate field="Cruise" operator="greaterOrEqual" value="0.5"/>
                        </Node>
                    </Node>
                </TreeModel>
            </Segment>
            <Segment id="65">
                <True/>
                <TreeModel functionName="regression" splitCharacteristic="multiSplit">
                    <MiningSchema>
                        <MiningField name="Cruise" usageType="active"/>
                    </MiningSchema>
                    <Node id="1">
                        <True/>
                        <Node id="4" score="0.8520331244608514">
                            <SimplePredicate field="Cruise" operator="isMissing"/>
                        </Node>
                        <Node id="2" score="-4.631985842651333">
                            <SimplePredicate field="Cruise" operator="lessThan" value="0.5"/>
                        </Node>
                        <Node id="3" score="2.7335793809595925">
                            <SimplePredicate field="Cruise" operator="greaterOrEqual" value="0.5"/>
                        </Node>
                    </Node>
                </TreeModel>
            </Segment>
            <Segment id="66">
                <True/>
                <TreeModel functionName="regression" splitCharacteristic="multiSplit">
                    <MiningSchema>
                        <MiningField name="Cruise" usageType="active"/>
                    </MiningSchema>
                    <Node id="1">
                        <True/>
                        <Node id="4" score="1.3571572138959327">
                            <SimplePredicate field="Cruise" operator="isMissing"/>
                        </Node>
                        <Node id="2" score="-4.3683588568086815">
                            <SimplePredicate field="Cruise" operator="lessThan" value="0.5"/>
                        </Node>
                        <Node id="3" score="3.3538708015786343">
                            <SimplePredicate field="Cruise" operator="greaterOrEqual" value="0.5"/>
                        </Node>
                    </Node>
                </TreeModel>
            </Segment>
            <Segment id="67">
                <True/>
                <TreeModel functionName="regression" splitCharacteristic="multiSplit">
                    <MiningSchema>
                        <MiningField name="Cruise" usageType="active"/>
                    </MiningSchema>
                    <Node id="1">
                        <True/>
                        <Node id="4" score="0.9105287945557357">
                            <SimplePredicate field="Cruise" operator="isMissing"/>
                        </Node>
                        <Node id="2" score="-4.529880497951874">
                            <SimplePredicate field="Cruise" operator="lessThan" value="0.5"/>
                        </Node>
                        <Node id="3" score="2.7466669307770535">
                            <SimplePredicate field="Cruise" operator="greaterOrEqual" value="0.5"/>
                        </Node>
                    </Node>
                </TreeModel>
            </Segment>
            <Segment id="68">
                <True/>
                <TreeModel functionName="regression" splitCharacteristic="multiSplit">
                    <MiningSchema>
                        <MiningField name="Cruise" usageType="active"/>
                    </MiningSchema>
                    <Node id="1">
                        <True/>
                        <Node id="4" score="0.24978574239669443">
                            <SimplePredicate field="Cruise" operator="isMissing"/>
                        </Node>
                        <Node id="2" score="-4.355590617453923">
                            <SimplePredicate field="Cruise" operator="lessThan" value="0.5"/>
                        </Node>
                        <Node id="3" score="1.8041002638462778">
                            <SimplePredicate field="Cruise" operator="greaterOrEqual" value="0.5"/>
                        </Node>
                    </Node>
                </TreeModel>
            </Segment>
            <Segment id="69">
                <True/>
                <TreeModel functionName="regression" splitCharacteristic="multiSplit">
                    <MiningSchema>
                        <MiningField name="Cruise" usageType="active"/>
                    </MiningSchema>
                    <Node id="1">
                        <True/>
                        <Node id="4" score="1.2197194086624223">
                            <SimplePredicate field="Cruise" operator="isMissing"/>
                        </Node>
                        <Node id="2" score="-5.248270026836468">
                            <SimplePredicate field="Cruise" operator="lessThan" value="0.5"/>
                        </Node>
                        <Node id="3" score="3.0235411635824314">
                            <SimplePredicate field="Cruise" operator="greaterOrEqual" value="0.5"/>
                        </Node>
                    </Node>
                </TreeModel>
            </Segment>
            <Segment id="70">
                <True/>
                <TreeModel functionName="regression" splitCharacteristic="multiSplit">
                    <MiningSchema>
                        <MiningField name="Cruise" usageType="active"/>
                    </MiningSchema>
                    <Node id="1">
                        <True/>
                        <Node id="4" score="0.5582594827884294">
                            <SimplePredicate field="Cruise" operator="isMissing"/>
                        </Node>
                        <Node id="2" score="-5.19559175680963">
                            <SimplePredicate field="Cruise" operator="lessThan" value="0.5"/>
                        </Node>
                        <Node id="3" score="2.343127622418848">
                            <SimplePredicate field="Cruise" operator="greaterOrEqual" value="0.5"/>
                        </Node>
                    </Node>
                </TreeModel>
            </Segment>
            <Segment id="71">
                <True/>
                <TreeModel functionName="regression" splitCharacteristic="multiSplit">
                    <MiningSchema>
                        <MiningField name="Cruise" usageType="active"/>
                    </MiningSchema>
                    <Node id="1">
                        <True/>
                        <Node id="4" score="1.2258735162679602">
                            <SimplePredicate field="Cruise" operator="isMissing"/>
                        </Node>
                        <Node id="2" score="-4.557696165052822">
                            <SimplePredicate field="Cruise" operator="lessThan" value="0.5"/>
                        </Node>
                        <Node id="3" score="3.2101944947964296">
                            <SimplePredicate field="Cruise" operator="greaterOrEqual" value="0.5"/>
                        </Node>
                    </Node>
                </TreeModel>
            </Segment>
            <Segment id="72">
                <True/>
                <TreeModel functionName="regression" splitCharacteristic="multiSplit">
                    <MiningSchema>
                        <MiningField name="Cruise" usageType="active"/>
                    </MiningSchema>
                    <Node id="1">
                        <True/>
                        <Node id="4" score="1.06556230150896">
                            <SimplePredicate field="Cruise" operator="isMissing"/>
                        </Node>
                        <Node id="2" score="-5.114233468887771">
                            <SimplePredicate field="Cruise" operator="lessThan" value="0.5"/>
                        </Node>
                        <Node id="3" score="2.8206243003016316">
                            <SimplePredicate field="Cruise" operator="greaterOrEqual" value="0.5"/>
                        </Node>
                    </Node>
                </TreeModel>
            </Segment>
            <Segment id="73">
                <True/>
                <TreeModel functionName="regression" splitCharacteristic="multiSplit">
                    <MiningSchema>
                        <MiningField name="Cruise" usageType="active"/>
                    </MiningSchema>
                    <Node id="1">
                        <True/>
                        <Node id="4" score="0.9253385097816561">
                            <SimplePredicate field="Cruise" operator="isMissing"/>
                        </Node>
                        <Node id="2" score="-4.879819235418883">
                            <SimplePredicate field="Cruise" operator="lessThan" value="0.5"/>
                        </Node>
                        <Node id="3" score="2.6952036760013325">
                            <SimplePredicate field="Cruise" operator="greaterOrEqual" value="0.5"/>
                        </Node>
                    </Node>
                </TreeModel>
            </Segment>
            <Segment id="74">
                <True/>
                <TreeModel functionName="regression" splitCharacteristic="multiSplit">
                    <MiningSchema>
                        <MiningField name="Cruise" usageType="active"/>
                    </MiningSchema>
                    <Node id="1">
                        <True/>
                        <Node id="4" score="1.2216750404307524">
                            <SimplePredicate field="Cruise" operator="isMissing"/>
                        </Node>
                        <Node id="2" score="-4.495999416183464">
                            <SimplePredicate field="Cruise" operator="lessThan" value="0.5"/>
                        </Node>
                        <Node id="3" score="2.96486847232533">
                            <SimplePredicate field="Cruise" operator="greaterOrEqual" value="0.5"/>
                        </Node>
                    </Node>
                </TreeModel>
            </Segment>
            <Segment id="75">
                <True/>
                <TreeModel functionName="regression" splitCharacteristic="multiSplit">
                    <MiningSchema>
                        <MiningField name="Cruise" usageType="active"/>
                    </MiningSchema>
                    <Node id="1">
                        <True/>
                        <Node id="4" score="1.083908985456492">
                            <SimplePredicate field="Cruise" operator="isMissing"/>
                        </Node>
                        <Node id="2" score="-4.49150341676728">
                            <SimplePredicate field="Cruise" operator="lessThan" value="0.5"/>
                        </Node>
                        <Node id="3" score="2.7250586038530056">
                            <SimplePredicate field="Cruise" operator="greaterOrEqual" value="0.5"/>
                        </Node>
                    </Node>
                </TreeModel>
            </Segment>
            <Segment id="76">
                <True/>
                <TreeModel functionName="regression" splitCharacteristic="multiSplit">
                    <MiningSchema>
                        <MiningField name="Saab" usageType="active"/>
                    </MiningSchema>
                    <Node id="1">
                        <True/>
                        <Node id="4" score="0.1769647103776398">
                            <SimplePredicate field="Saab" operator="isMissing"/>
                        </Node>
                        <Node id="2" score="-1.9734016840506803">
                            <SimplePredicate field="Saab" operator="lessThan" value="0.5"/>
                        </Node>
                        <Node id="3" score="10.576918545249152">
                            <SimplePredicate field="Saab" operator="greaterOrEqual" value="0.5"/>
                        </Node>
                    </Node>
                </TreeModel>
            </Segment>
            <Segment id="77">
                <True/>
                <TreeModel functionName="regression" splitCharacteristic="multiSplit">
                    <MiningSchema>
                        <MiningField name="Cruise" usageType="active"/>
                    </MiningSchema>
                    <Node id="1">
                        <True/>
                        <Node id="4" score="0.8178350087818873">
                            <SimplePredicate field="Cruise" operator="isMissing"/>
                        </Node>
                        <Node id="2" score="-4.319148511666459">
                            <SimplePredicate field="Cruise" operator="lessThan" value="0.5"/>
                        </Node>
                        <Node id="3" score="2.551566946933204">
                            <SimplePredicate field="Cruise" operator="greaterOrEqual" value="0.5"/>
                        </Node>
                    </Node>
                </TreeModel>
            </Segment>
            <Segment id="78">
                <True/>
                <TreeModel functionName="regression" splitCharacteristic="multiSplit">
                    <MiningSchema>
                        <MiningField name="Cruise" usageType="active"/>
                    </MiningSchema>
                    <Node id="1">
                        <True/>
                        <Node id="4" score="1.0164177321202192">
                            <SimplePredicate field="Cruise" operator="isMissing"/>
                        </Node>
                        <Node id="2" score="-5.157379363154794">
                            <SimplePredicate field="Cruise" operator="lessThan" value="0.5"/>
                        </Node>
                        <Node id="3" score="2.998130379986273">
                            <SimplePredicate field="Cruise" operator="greaterOrEqual" value="0.5"/>
                        </Node>
                    </Node>
                </TreeModel>
            </Segment>
            <Segment id="79">
                <True/>
                <TreeModel functionName="regression" splitCharacteristic="multiSplit">
                    <MiningSchema>
                        <MiningField name="Cruise" usageType="active"/>
                    </MiningSchema>
                    <Node id="1">
                        <True/>
                        <Node id="4" score="0.7013772561320437">
                            <SimplePredicate field="Cruise" operator="isMissing"/>
                        </Node>
                        <Node id="2" score="-4.99188198379164">
                            <SimplePredicate field="Cruise" operator="lessThan" value="0.5"/>
                        </Node>
                        <Node id="3" score="2.622852249606287">
                            <SimplePredicate field="Cruise" operator="greaterOrEqual" value="0.5"/>
                        </Node>
                    </Node>
                </TreeModel>
            </Segment>
            <Segment id="80">
                <True/>
                <TreeModel functionName="regression" splitCharacteristic="multiSplit">
                    <MiningSchema>
                        <MiningField name="Cruise" usageType="active"/>
                    </MiningSchema>
                    <Node id="1">
                        <True/>
                        <Node id="4" score="1.492277149893538">
                            <SimplePredicate field="Cruise" operator="isMissing"/>
                        </Node>
                        <Node id="2" score="-4.234600101807848">
                            <SimplePredicate field="Cruise" operator="lessThan" value="0.5"/>
                        </Node>
                        <Node id="3" score="3.2995293973566806">
                            <SimplePredicate field="Cruise" operator="greaterOrEqual" value="0.5"/>
                        </Node>
                    </Node>
                </TreeModel>
            </Segment>
            <Segment id="81">
                <True/>
                <TreeModel functionName="regression" splitCharacteristic="multiSplit">
                    <MiningSchema>
                        <MiningField name="Cruise" usageType="active"/>
                    </MiningSchema>
                    <Node id="1">
                        <True/>
                        <Node id="4" score="1.120528409720794">
                            <SimplePredicate field="Cruise" operator="isMissing"/>
                        </Node>
                        <Node id="2" score="-4.90351050170604">
                            <SimplePredicate field="Cruise" operator="lessThan" value="0.5"/>
                        </Node>
                        <Node id="3" score="2.989209867959322">
                            <SimplePredicate field="Cruise" operator="greaterOrEqual" value="0.5"/>
                        </Node>
                    </Node>
                </TreeModel>
            </Segment>
            <Segment id="82">
                <True/>
                <TreeModel functionName="regression" splitCharacteristic="multiSplit">
                    <MiningSchema>
                        <MiningField name="Cruise" usageType="active"/>
                    </MiningSchema>
                    <Node id="1">
                        <True/>
                        <Node id="4" score="1.3627644169742719">
                            <SimplePredicate field="Cruise" operator="isMissing"/>
                        </Node>
                        <Node id="2" score="-4.091761991204334">
                            <SimplePredicate field="Cruise" operator="lessThan" value="0.5"/>
                        </Node>
                        <Node id="3" score="2.9683306580913613">
                            <SimplePredicate field="Cruise" operator="greaterOrEqual" value="0.5"/>
                        </Node>
                    </Node>
                </TreeModel>
            </Segment>
            <Segment id="83">
                <True/>
                <TreeModel functionName="regression" splitCharacteristic="multiSplit">
                    <MiningSchema>
                        <MiningField name="Cruise" usageType="active"/>
                    </MiningSchema>
                    <Node id="1">
                        <True/>
                        <Node id="4" score="1.6731679142395417">
                            <SimplePredicate field="Cruise" operator="isMissing"/>
                        </Node>
                        <Node id="2" score="-4.73746022921313">
                            <SimplePredicate field="Cruise" operator="lessThan" value="0.5"/>
                        </Node>
                        <Node id="3" score="3.5601673274332715">
                            <SimplePredicate field="Cruise" operator="greaterOrEqual" value="0.5"/>
                        </Node>
                    </Node>
                </TreeModel>
            </Segment>
            <Segment id="84">
                <True/>
                <TreeModel functionName="regression" splitCharacteristic="multiSplit">
                    <MiningSchema>
                        <MiningField name="Cruise" usageType="active"/>
                    </MiningSchema>
                    <Node id="1">
                        <True/>
                        <Node id="4" score="1.18415516843238">
                            <SimplePredicate field="Cruise" operator="isMissing"/>
                        </Node>
                        <Node id="2" score="-4.384622768983915">
                            <SimplePredicate field="Cruise" operator="lessThan" value="0.5"/>
                        </Node>
                        <Node id="3" score="3.032712160105839">
                            <SimplePredicate field="Cruise" operator="greaterOrEqual" value="0.5"/>
                        </Node>
                    </Node>
                </TreeModel>
            </Segment>
            <Segment id="85">
                <True/>
                <TreeModel functionName="regression" splitCharacteristic="multiSplit">
                    <MiningSchema>
                        <MiningField name="Cruise" usageType="active"/>
                    </MiningSchema>
                    <Node id="1">
                        <True/>
                        <Node id="4" score="1.3921446108081166">
                            <SimplePredicate field="Cruise" operator="isMissing"/>
                        </Node>
                        <Node id="2" score="-5.0388931462149325">
                            <SimplePredicate field="Cruise" operator="lessThan" value="0.5"/>
                        </Node>
                        <Node id="3" score="3.598609447945732">
                            <SimplePredicate field="Cruise" operator="greaterOrEqual" value="0.5"/>
                        </Node>
                    </Node>
                </TreeModel>
            </Segment>
            <Segment id="86">
                <True/>
                <TreeModel functionName="regression" splitCharacteristic="multiSplit">
                    <MiningSchema>
                        <MiningField name="Cruise" usageType="active"/>
                    </MiningSchema>
                    <Node id="1">
                        <True/>
                        <Node id="4" score="1.197966113339153">
                            <SimplePredicate field="Cruise" operator="isMissing"/>
                        </Node>
                        <Node id="2" score="-3.740514253068718">
                            <SimplePredicate field="Cruise" operator="lessThan" value="0.5"/>
                        </Node>
                        <Node id="3" score="2.6775108384977866">
                            <SimplePredicate field="Cruise" operator="greaterOrEqual" value="0.5"/>
                        </Node>
                    </Node>
                </TreeModel>
            </Segment>
            <Segment id="87">
                <True/>
                <TreeModel functionName="regression" splitCharacteristic="multiSplit">
                    <MiningSchema>
                        <MiningField name="Cruise" usageType="active"/>
                    </MiningSchema>
                    <Node id="1">
                        <True/>
                        <Node id="4" score="1.4968011754702846">
                            <SimplePredicate field="Cruise" operator="isMissing"/>
                        </Node>
                        <Node id="2" score="-4.186618738815649">
                            <SimplePredicate field="Cruise" operator="lessThan" value="0.5"/>
                        </Node>
                        <Node id="3" score="3.1697433276592895">
                            <SimplePredicate field="Cruise" operator="greaterOrEqual" value="0.5"/>
                        </Node>
                    </Node>
                </TreeModel>
            </Segment>
            <Segment id="88">
                <True/>
                <TreeModel functionName="regression" splitCharacteristic="multiSplit">
                    <MiningSchema>
                        <MiningField name="Cruise" usageType="active"/>
                    </MiningSchema>
                    <Node id="1">
                        <True/>
                        <Node id="4" score="1.3217472936506565">
                            <SimplePredicate field="Cruise" operator="isMissing"/>
                        </Node>
                        <Node id="2" score="-5.155617120076832">
                            <SimplePredicate field="Cruise" operator="lessThan" value="0.5"/>
                        </Node>
                        <Node id="3" score="3.1281835843316292">
                            <SimplePredicate field="Cruise" operator="greaterOrEqual" value="0.5"/>
                        </Node>
                    </Node>
                </TreeModel>
            </Segment>
            <Segment id="89">
                <True/>
                <TreeModel functionName="regression" splitCharacteristic="multiSplit">
                    <MiningSchema>
                        <MiningField name="Cruise" usageType="active"/>
                    </MiningSchema>
                    <Node id="1">
                        <True/>
                        <Node id="4" score="0.8558305456416392">
                            <SimplePredicate field="Cruise" operator="isMissing"/>
                        </Node>
                        <Node id="2" score="-4.570156502956757">
                            <SimplePredicate field="Cruise" operator="lessThan" value="0.5"/>
                        </Node>
                        <Node id="3" score="2.597505400747297">
                            <SimplePredicate field="Cruise" operator="greaterOrEqual" value="0.5"/>
                        </Node>
                    </Node>
                </TreeModel>
            </Segment>
            <Segment id="90">
                <True/>
                <TreeModel functionName="regression" splitCharacteristic="multiSplit">
                    <MiningSchema>
                        <MiningField name="Cruise" usageType="active"/>
                    </MiningSchema>
                    <Node id="1">
                        <True/>
                        <Node id="4" score="1.014694995469827">
                            <SimplePredicate field="Cruise" operator="isMissing"/>
                        </Node>
                        <Node id="2" score="-5.026761346453802">
                            <SimplePredicate field="Cruise" operator="lessThan" value="0.5"/>
                        </Node>
                        <Node id="3" score="2.9539278953465473">
                            <SimplePredicate field="Cruise" operator="greaterOrEqual" value="0.5"/>
                        </Node>
                    </Node>
                </TreeModel>
            </Segment>
            <Segment id="91">
                <True/>
                <TreeModel functionName="regression" splitCharacteristic="multiSplit">
                    <MiningSchema>
                        <MiningField name="Cruise" usageType="active"/>
                    </MiningSchema>
                    <Node id="1">
                        <True/>
                        <Node id="4" score="1.2589360014089388">
                            <SimplePredicate field="Cruise" operator="isMissing"/>
                        </Node>
                        <Node id="2" score="-4.352519585107348">
                            <SimplePredicate field="Cruise" operator="lessThan" value="0.5"/>
                        </Node>
                        <Node id="3" score="3.060143967451204">
                            <SimplePredicate field="Cruise" operator="greaterOrEqual" value="0.5"/>
                        </Node>
                    </Node>
                </TreeModel>
            </Segment>
            <Segment id="92">
                <True/>
                <TreeModel functionName="regression" splitCharacteristic="multiSplit">
                    <MiningSchema>
                        <MiningField name="Cruise" usageType="active"/>
                    </MiningSchema>
                    <Node id="1">
                        <True/>
                        <Node id="4" score="1.040354646578944">
                            <SimplePredicate field="Cruise" operator="isMissing"/>
                        </Node>
                        <Node id="2" score="-4.8637770655222425">
                            <SimplePredicate field="Cruise" operator="lessThan" value="0.5"/>
                        </Node>
                        <Node id="3" score="2.809203823483753">
                            <SimplePredicate field="Cruise" operator="greaterOrEqual" value="0.5"/>
                        </Node>
                    </Node>
                </TreeModel>
            </Segment>
            <Segment id="93">
                <True/>
                <TreeModel functionName="regression" splitCharacteristic="multiSplit">
                    <MiningSchema>
                        <MiningField name="Cruise" usageType="active"/>
                    </MiningSchema>
                    <Node id="1">
                        <True/>
                        <Node id="4" score="1.3276103029622253">
                            <SimplePredicate field="Cruise" operator="isMissing"/>
                        </Node>
                        <Node id="2" score="-4.42527328845672">
                            <SimplePredicate field="Cruise" operator="lessThan" value="0.5"/>
                        </Node>
                        <Node id="3" score="2.90280461966027">
                            <SimplePredicate field="Cruise" operator="greaterOrEqual" value="0.5"/>
                        </Node>
                    </Node>
                </TreeModel>
            </Segment>
            <Segment id="94">
                <True/>
                <TreeModel functionName="regression" splitCharacteristic="multiSplit">
                    <MiningSchema>
                        <MiningField name="Cruise" usageType="active"/>
                    </MiningSchema>
                    <Node id="1">
                        <True/>
                        <Node id="4" score="0.8153536906018866">
                            <SimplePredicate field="Cruise" operator="isMissing"/>
                        </Node>
                        <Node id="2" score="-4.406858015168264">
                            <SimplePredicate field="Cruise" operator="lessThan" value="0.5"/>
                        </Node>
                        <Node id="3" score="2.2984618150406098">
                            <SimplePredicate field="Cruise" operator="greaterOrEqual" value="0.5"/>
                        </Node>
                    </Node>
                </TreeModel>
            </Segment>
            <Segment id="95">
                <True/>
                <TreeModel functionName="regression" splitCharacteristic="multiSplit">
                    <MiningSchema>
                        <MiningField name="Cruise" usageType="active"/>
                    </MiningSchema>
                    <Node id="1">
                        <True/>
                        <Node id="4" score="0.4907753755611047">
                            <SimplePredicate field="Cruise" operator="isMissing"/>
                        </Node>
                        <Node id="2" score="-4.251526157153093">
                            <SimplePredicate field="Cruise" operator="lessThan" value="0.5"/>
                        </Node>
                        <Node id="3" score="2.064983353225569">
                            <SimplePredicate field="Cruise" operator="greaterOrEqual" value="0.5"/>
                        </Node>
                    </Node>
                </TreeModel>
            </Segment>
            <Segment id="96">
                <True/>
                <TreeModel functionName="regression" splitCharacteristic="multiSplit">
                    <MiningSchema>
                        <MiningField name="Cruise" usageType="active"/>
                    </MiningSchema>
                    <Node id="1">
                        <True/>
                        <Node id="4" score="1.22207147247862">
                            <SimplePredicate field="Cruise" operator="isMissing"/>
                        </Node>
                        <Node id="2" score="-3.821439630995941">
                            <SimplePredicate field="Cruise" operator="lessThan" value="0.5"/>
                        </Node>
                        <Node id="3" score="2.7066533698723414">
                            <SimplePredicate field="Cruise" operator="greaterOrEqual" value="0.5"/>
                        </Node>
                    </Node>
                </TreeModel>
            </Segment>
            <Segment id="97">
                <True/>
                <TreeModel functionName="regression" splitCharacteristic="multiSplit">
                    <MiningSchema>
                        <MiningField name="Cruise" usageType="active"/>
                    </MiningSchema>
                    <Node id="1">
                        <True/>
                        <Node id="4" score="1.3240877213463085">
                            <SimplePredicate field="Cruise" operator="isMissing"/>
                        </Node>
                        <Node id="2" score="-4.226553191364945">
                            <SimplePredicate field="Cruise" operator="lessThan" value="0.5"/>
                        </Node>
                        <Node id="3" score="3.2284917165024707">
                            <SimplePredicate field="Cruise" operator="greaterOrEqual" value="0.5"/>
                        </Node>
                    </Node>
                </TreeModel>
            </Segment>
            <Segment id="98">
                <True/>
                <TreeModel functionName="regression" splitCharacteristic="multiSplit">
                    <MiningSchema>
                        <MiningField name="Cruise" usageType="active"/>
                    </MiningSchema>
                    <Node id="1">
